digraph Tree {
node [shape=box, style="filled, rounded", color="black", fontname=helvetica] ;
edge [fontname=helvetica] ;
0 [label=<Number &le; 4.5<br/>gini = 0.27<br/>samples = 56<br/>value = [47, 9]>, fillcolor="#ea995f"] ;
1 [label=<Age &le; 128.5<br/>gini = 0.142<br/>samples = 39<br/>value = [36, 3]>, fillcolor="#e78c49"] ;
0 -> 1 [labeldistance=2.5, labelangle=45, headlabel="True"] ;
2 [label=<gini = 0.0<br/>samples = 27<br/>value = [27, 0]>, fillcolor="#e58139"] ;
1 -> 2 ;
3 [label=<Start &le; 13.5<br/>gini = 0.375<br/>samples = 12<br/>value = [9, 3]>, fillcolor="#eeab7b"] ;
1 -> 3 ;
4 [label=<Age &le; 181.5<br/>gini = 0.48<br/>samples = 5<br/>value = [2, 3]>, fillcolor="#bddef6"] ;
3 -> 4 ;
5 [label=<Number &le; 2.5<br/>gini = 0.375<br/>samples = 4<br/>value = [1, 3]>, fillcolor="#7bbeee"] ;
4 -> 5 ;
6 [label=<gini = 0.0<br/>samples = 1<br/>value = [1, 0]>, fillcolor="#e58139"] ;
5 -> 6 ;
7 [label=<gini = 0.0<br/>samples = 3<br/>value = [0, 3]>, fillcolor="#399de5"] ;
5 -> 7 ;
8 [label=<gini = 0.0<br/>samples = 1<br/>value = [1, 0]>, fillcolor="#e58139"] ;
4 -> 8 ;
9 [label=<gini = 0.0<br/>samples = 7<br/>value = [7, 0]>, fillcolor="#e58139"] ;
3 -> 9 ;
10 [label=<Age &le; 125.5<br/>gini = 0.457<br/>samples = 17<br/>value = [11, 6]>, fillcolor="#f3c6a5"] ;
0 -> 10 [labeldistance=2.5, labelangle=-45, headlabel="False"] ;
11 [label=<Age &le; 81.0<br/>gini = 0.5<br/>samples = 12<br/>value = [6, 6]>, fillcolor="#ffffff"] ;
10 -> 11 ;
12 [label=<Age &le; 16.5<br/>gini = 0.444<br/>samples = 9<br/>value = [6, 3]>, fillcolor="#f2c09c"] ;
11 -> 12 ;
13 [label=<gini = 0.0<br/>samples = 1<br/>value = [0, 1]>, fillcolor="#399de5"] ;
12 -> 13 ;
14 [label=<Start &le; 1.5<br/>gini = 0.375<br/>samples = 8<br/>value = [6, 2]>, fillcolor="#eeab7b"] ;
12 -> 14 ;
15 [label=<gini = 0.0<br/>samples = 1<br/>value = [0, 1]>, fillcolor="#399de5"] ;
14 -> 15 ;
16 [label=<Age &le; 55.0<br/>gini = 0.245<br/>samples = 7<br/>value = [6, 1]>, fillcolor="#e9965a"] ;
14 -> 16 ;
17 [label=<gini = 0.0<br/>samples = 4<br/>value = [4, 0]>, fillcolor="#e58139"] ;
16 -> 17 ;
18 [label=<Age &le; 65.5<br/>gini = 0.444<br/>samples = 3<br/>value = [2, 1]>, fillcolor="#f2c09c"] ;
16 -> 18 ;
19 [label=<gini = 0.0<br/>samples = 1<br/>value = [0, 1]>, fillcolor="#399de5"] ;
18 -> 19 ;
20 [label=<gini = 0.0<br/>samples = 2<br/>value = [2, 0]>, fillcolor="#e58139"] ;
18 -> 20 ;
21 [label=<gini = 0.0<br/>samples = 3<br/>value = [0, 3]>, fillcolor="#399de5"] ;
11 -> 21 ;
22 [label=<gini = 0.0<br/>samples = 5<br/>value = [5, 0]>, fillcolor="#e58139"] ;
10 -> 22 ;
}